{
    "levels":[
        {
            "inputs":[
                0.4400024153080423,
                0.3456437185406841,
                0.19329257094343733,
                0,
                0,
                0,
                0,
                0,
                0,
                0,
                0,
                0
                ],
                "outputs":[
                    0,
                    0,
                    0,
                    0,
                    0,
                    1
                    ],
                    "biases":[
                        0.3807605233725071,
                        -0.10837303649525953,
                        -0.2634781247018898,
                        -0.18651808384925417,
                        0.3959654118832987,
                        -0.6176747632500499
                        ],
                        "weights":[
                            [
                                -0.7968739433575571,
                                -0.8427494132959699,
                                -0.21194770670415708,
                                -0.5215289505946206,
                                0.8965114469896276,
                                0.5985175894350907
                            ],
                            [
                                -0.4508595089342524,
                                -0.4854070596150353,
                                -0.34556668864414863,
                                -0.38571475123786203,
                                -0.5548932699166926,
                                0.6692957946321065
                            ],
                            [
                                0.8563482110792442,
                                -0.8491896851750085,
                                -0.429700370739009,
                                0.04458951245604115,
                                -0.41487770140632607,
                                0.485856730701691
                            ],
                            [
                                -0.7792592913105765,
                                -0.8616225708810044,
                                0.21450703728624165,
                                0.09391947703993941,
                                -0.4065205605033657,
                                -0.06213118192124689
                            ],
                            [
                                -0.7820328856181624,
                                -0.08978587463877874,
                                -0.8822407366943745,
                                -0.29175935504609374,
                                0.9117557712700102,
                                0.851808967828364
                            ],
                            [
                                -0.804437066651386,
                                0.8624046895084201,
                                -0.5635439790456966,
                                0.4668331157374972,
                                0.499550798980263,
                                0.9780957486078503
                            ],
                            [
                                -0.3408617039406818,
                                -0.14001418905882024,
                                -0.03933058711271853,
                                -0.7597060056553651,
                                -0.3305842240512842,
                                -0.9667465864794014
                            ],
                            [
                                -0.061007487335860366,
                                0.2778330521122936,
                                -0.7927215910373886,
                                -0.5099305004557728,
                                0.955992368951285,
                                -0.4580433136798263
                            ],
                            [
                                0.814160934344361,
                                -0.06373152598324117,
                                -0.9257791949350924,
                                0.9160467257445759,
                                0.09516096338989422,
                                -0.6887873042277721
                            ],
                            [
                                0.2316943584175295,
                                -0.9021722879344722,
                                -0.8551555334510914,
                                0.4008786095522634,
                                -0.2745220001836297,
                                0.814224639875655
                            ],
                            [
                                -0.4431894253137181,
                                0.5507159091309857,
                                -0.3972335900879862,
                                0.434307638905423,
                                0.934877127739193,
                                -0.050405877358630224
                            ],
                            [
                                0.2876796117456504,
                                0.6613419614028815,
                                0.8782107717960503,
                                -0.49863557016776383,
                                -0.29216327786202245,
                                0.024762922176588598
                            ]
                        ]
        },
        {
            "inputs":[
                0,
                0,
                0,
                0,
                0,
                1
            ],
                "outputs":[
                    1,
                    0,
                    1,
                    0
            ],
                "biases":[
                    -0.7050540079209098,
                    0.9768830126157357,
                    0.3536915309847326,
                    0.9548743217254476
                ],
                "weights":[
                    [
                        -0.4072989897963166,
                        -0.08948996608999171,
                        0.7665184240850078,
                        -0.4034246335381533
                    ],
                    [
                        -0.5580210177718661,
                        -0.1722872990278148,
                        -0.182073351920351,
                        0.3664030734291781
                    ],
                    [
                        -0.43454178858664716,
                        0.4631340493885472,
                        -0.2751964078036082,
                        0.26493842445308347
                    ],
                    [
                        0.9121921463845271,
                        0.3537551033075108,
                        0.021867497378726508,
                        -0.20216549444554976
                    ],
                    [
                        0.6800913421554451,
                        0.8553697853760391,
                        -0.6473949146884297,
                        -0.6430986724747876
                    ],
                    [
                        0.8641765749783668,
                        0.8370806023866859,
                        0.5074728270559492,
                        -0.3009203548175652
                    ]
                ]
        }
    ]
}